digraph Tree {
node [shape=box, style="filled, rounded", color="black", fontname="helvetica"] ;
edge [fontname="helvetica"] ;
0 [label="petal length (cm) <= -0.911\ngini = 0.667\nsamples = 150\nvalue = [50, 50, 50]\nclass = setosa", fillcolor="#ffffff"] ;
1 [label="gini = 0.0\nsamples = 50\nvalue = [50, 0, 0]\nclass = setosa", fillcolor="#e58139"] ;
0 -> 1 [labeldistance=2.5, labelangle=45, headlabel="True"] ;
2 [label="petal length (cm) <= 0.758\ngini = 0.5\nsamples = 100\nvalue = [0, 50, 50]\nclass = versicolor", fillcolor="#ffffff"] ;
0 -> 2 [labeldistance=2.5, labelangle=-45, headlabel="False"] ;
3 [label="gini = 0.0\nsamples = 47\nvalue = [0, 47, 0]\nclass = versicolor", fillcolor="#39e581"] ;
2 -> 3 ;
4 [label="petal length (cm) <= 0.998\ngini = 0.107\nsamples = 53\nvalue = [0, 3, 50]\nclass = virginica", fillcolor="#8945e7"] ;
2 -> 4 ;
5 [label="gini = 0.444\nsamples = 9\nvalue = [0, 3, 6]\nclass = virginica", fillcolor="#c09cf2"] ;
4 -> 5 ;
6 [label="gini = 0.0\nsamples = 44\nvalue = [0, 0, 44]\nclass = virginica", fillcolor="#8139e5"] ;
4 -> 6 ;
}